Language model created by QuickLM on Sun Feb 17 17:30:54 EST 2019
Copyright (c) 1996-2010 Carnegie Mellon University and Alexander I. Rudnicky

The model is in standard ARPA format, designed by Doug Paul while he was at MITRE.

The code that was used to produce this language model is available in Open Source.
Please visit http://www.speech.cs.cmu.edu/tools/ for more information

The (fixed) discount mass is 0.5. The backoffs are computed using the ratio method.
This model based on a corpus of 13 sentences and 15 words

\data\
ngram 1=15
ngram 2=26
ngram 3=13

\1-grams:
-0.7782 </s> -0.3010
-0.7782 <s> -0.2218
-1.8921 ABUO -0.2218
-1.8921 AGIDI -0.2218
-1.8921 ASAA -0.2218
-1.8921 ASATO -0.2218
-1.8921 DAALU -0.2218
-1.8921 INO -0.2218
-1.8921 ISE -0.2218
-1.8921 ISIL -0.2218
-1.8921 ITO -0.2218
-1.8921 KWUSI -0.2218
-1.8921 NINE -0.2218
-1.8921 NNOO -0.2218
-1.8921 OFU -0.2218

\2-grams:
-1.4150 <s> ABUO 0.0000
-1.4150 <s> AGIDI 0.0000
-1.4150 <s> ASAA 0.0000
-1.4150 <s> ASATO 0.0000
-1.4150 <s> DAALU 0.0000
-1.4150 <s> INO 0.0000
-1.4150 <s> ISE 0.0000
-1.4150 <s> ISIL 0.0000
-1.4150 <s> ITO 0.0000
-1.4150 <s> KWUSI 0.0000
-1.4150 <s> NINE 0.0000
-1.4150 <s> NNOO 0.0000
-1.4150 <s> OFU 0.0000
-0.3010 ABUO </s> -0.3010
-0.3010 AGIDI </s> -0.3010
-0.3010 ASAA </s> -0.3010
-0.3010 ASATO </s> -0.3010
-0.3010 DAALU </s> -0.3010
-0.3010 INO </s> -0.3010
-0.3010 ISE </s> -0.3010
-0.3010 ISIL </s> -0.3010
-0.3010 ITO </s> -0.3010
-0.3010 KWUSI </s> -0.3010
-0.3010 NINE </s> -0.3010
-0.3010 NNOO </s> -0.3010
-0.3010 OFU </s> -0.3010

\3-grams:
-0.3010 <s> ABUO </s>
-0.3010 <s> AGIDI </s>
-0.3010 <s> ASAA </s>
-0.3010 <s> ASATO </s>
-0.3010 <s> DAALU </s>
-0.3010 <s> INO </s>
-0.3010 <s> ISE </s>
-0.3010 <s> ISIL </s>
-0.3010 <s> ITO </s>
-0.3010 <s> KWUSI </s>
-0.3010 <s> NINE </s>
-0.3010 <s> NNOO </s>
-0.3010 <s> OFU </s>

\end\
