Language model created by QuickLM on Mon Jan  7 16:36:31 EST 2019
Copyright (c) 1996-2010 Carnegie Mellon University and Alexander I. Rudnicky

The model is in standard ARPA format, designed by Doug Paul while he was at MITRE.

The code that was used to produce this language model is available in Open Source.
Please visit http://www.speech.cs.cmu.edu/tools/ for more information

The (fixed) discount mass is 0.5. The backoffs are computed using the ratio method.
This model based on a corpus of 5 sentences and 7 words

\data\
ngram 1=7
ngram 2=10
ngram 3=5

\1-grams:
-0.7782 </s> -0.3010
-0.7782 <s> -0.2218
-1.4771 ABUO -0.2218
-1.4771 DAALU -0.2218
-1.4771 KWUSI -0.2218
-1.4771 NNOO -0.2218
-1.4771 OFU -0.2218

\2-grams:
-1.0000 <s> ABUO 0.0000
-1.0000 <s> DAALU 0.0000
-1.0000 <s> KWUSI 0.0000
-1.0000 <s> NNOO 0.0000
-1.0000 <s> OFU 0.0000
-0.3010 ABUO </s> -0.3010
-0.3010 DAALU </s> -0.3010
-0.3010 KWUSI </s> -0.3010
-0.3010 NNOO </s> -0.3010
-0.3010 OFU </s> -0.3010

\3-grams:
-0.3010 <s> ABUO </s>
-0.3010 <s> DAALU </s>
-0.3010 <s> KWUSI </s>
-0.3010 <s> NNOO </s>
-0.3010 <s> OFU </s>

\end\
